34 128
34 0.099931635 0.18595256 -0.11632198 -0.0587086 -0.023955476 -0.037957564 -0.12681215 0.05846116 -0.049427383 0.059430145 0.08611797 -0.050447136 -0.079062454 -0.16655532 -0.08662185 0.009684148 -0.051270343 -0.21045901 -0.01547187 -0.04633556 0.1534516 0.020539455 -0.022166826 -0.10358515 0.05036034 -0.082204826 0.12074136 0.113843754 0.072427794 0.021936953 -0.064604074 -0.18578808 0.10682059 -0.053549286 0.08524836 -0.055274542 -0.02045712 0.10781054 -0.042143203 0.22880004 -0.17446543 -0.19422445 -0.09818785 -0.0021448976 -0.008596396 0.036692396 0.044088084 0.14983793 -0.12306606 0.023115335 0.10311499 -0.00043293164 0.006270525 0.12898776 -0.04200326 0.22556086 0.009426319 0.010542776 0.03150223 -0.25846362 0.07619079 0.01767262 0.05921049 0.13431554 -0.08007285 -0.015017245 0.24064639 -0.07443586 0.20934702 0.09731416 0.2076041 0.085605286 0.07064317 -0.052078124 0.21979374 0.06880069 0.15838848 -0.08092303 0.0046537346 0.045595586 -0.055464357 -0.016627107 0.22246143 -0.0656671 0.07610758 0.09821411 -0.04082825 0.078951724 -0.018883428 -0.17853816 0.12411582 0.039295085 -0.14226967 -0.022056026 -0.12876163 -0.15763326 -0.07309854 -0.14611264 -0.04765788 -0.07031155 0.01826708 -0.08500533 0.0009765797 -0.08672449 0.093464985 -0.10490903 -0.12858586 0.18818551 0.12298807 -0.20092693 0.04929483 0.07349326 -0.11864838 0.09274148 -0.06495494 0.02769137 -0.024727546 -0.10712362 -0.023473328 0.15313229 -0.002178204 -0.03930362 -0.16753966 -0.07772211 0.11283723 -0.0045168903 0.07693595 -0.077141196
1 0.10790328 0.12265904 -0.06045268 0.00060631265 -0.031724904 0.011266935 -0.029336726 0.11274254 -0.00057256175 0.058480136 0.015409141 0.08327977 -0.045512922 -0.1331528 -0.12435953 0.015669746 -0.05728544 -0.13860238 -0.037101537 0.011602884 0.18807653 0.08128119 -0.14356504 0.056091692 0.0037504258 0.010913132 0.13025548 0.034078967 0.051303614 0.08892037 0.008540508 -0.050377984 0.07979464 0.0023668488 0.102492176 -0.12312607 -0.080012456 0.11420073 -0.062121417 0.28331095 -0.17649123 -0.10792237 -0.0056239176 0.05895373 -0.023072084 0.09377691 0.07894767 0.05943748 -0.14634037 0.047358282 0.027078263 -0.034148864 0.034745112 0.12052078 -0.055645265 0.17411911 0.01825386 0.042461243 -0.030851608 -0.12812065 0.15226611 0.013862827 0.05977761 0.18664944 -0.15966426 -0.015071091 0.20792706 -0.061377946 0.09960119 0.017852414 0.11447713 0.034947846 0.12595947 0.008044687 0.2581074 0.023892445 0.16085872 -0.16973 -0.04775042 0.11099582 0.09647449 0.015421546 0.21209069 -0.123046875 0.026151316 0.04947257 0.05262417 -0.009988485 -0.017212894 -0.2382829 0.103495345 0.018852295 -0.15867919 0.02597638 -0.17390035 -0.06422582 -0.14061956 -0.1263453 0.02152865 -0.14226747 0.056794267 -0.01619748 -0.08592683 -0.2179537 0.006234149 -0.06478519 -0.14523007 0.1356995 -0.027550774 -0.26868686 0.1364238 -0.11021877 -0.05237213 0.054809578 -0.071445726 0.06314723 -0.11672095 -0.09579043 0.0712795 0.21573879 0.0034312385 0.06250039 -0.14279619 -0.1209583 0.23311687 -0.03238349 0.16505727 -0.10541986
33 0.10094945 0.1870107 -0.107977815 -0.054500222 -0.027440066 -0.035302583 -0.11825547 0.058532976 -0.05046835 0.06773642 0.08146577 -0.038854957 -0.073063545 -0.17059502 -0.09354911 0.008349168 -0.059804462 -0.21287145 -0.019671513 -0.044495136 0.16120401 0.023427315 -0.031537622 -0.091753334 0.041181892 -0.07808933 0.12265658 0.113166094 0.0795551 0.029814823 -0.061250128 -0.17543036 0.108379155 -0.046722263 0.094936356 -0.061994944 -0.024663825 0.11341291 -0.05449456 0.2362883 -0.17245987 -0.19511262 -0.09514288 0.0043755216 -0.016917627 0.045408465 0.0437737 0.14615543 -0.13015239 0.022899177 0.096612796 -0.0033488248 0.009137855 0.12816884 -0.049160358 0.23166715 0.0068391403 0.015999155 0.026081454 -0.2540699 0.08824779 0.017635293 0.054929677 0.13938993 -0.08466585 -0.021086609 0.24797787 -0.077291556 0.20920892 0.091043815 0.20134506 0.079602346 0.084886685 -0.047031 0.22256741 0.06251566 0.1678507 -0.083527446 0.002498776 0.05122501 -0.048508584 -0.018176554 0.22354122 -0.066401914 0.06888209 0.095367655 -0.034177754 0.07181383 -0.017893622 -0.1918826 0.12868144 0.04076955 -0.14954813 -0.016908664 -0.13544114 -0.15233253 -0.085476905 -0.14737529 -0.044491567 -0.080564864 0.01883903 -0.07756736 -0.005096636 -0.097319305 0.08710619 -0.100329556 -0.13305968 0.1864465 0.12044827 -0.21463063 0.057227153 0.05577226 -0.118589446 0.09489989 -0.06106744 0.027551606 -0.03624228 -0.11040913 -0.021810453 0.16354726 -0.0017821938 -0.03414877 -0.16888341 -0.094252676 0.13129337 -0.0021127162 0.08692574 -0.08712227
3 0.12217243 0.16910322 -0.09262776 -0.029886192 -0.02893567 -0.010552613 -0.07762124 0.090505384 -0.030715996 0.072908804 0.054127418 0.022278497 -0.06815528 -0.15677848 -0.1220939 0.018971585 -0.062240582 -0.1901132 -0.0352319 -0.018630706 0.19449753 0.055797152 -0.09705597 -0.018927814 0.022176769 -0.042180493 0.13558854 0.07930417 0.06948168 0.064896934 -0.028034894 -0.11953801 0.10141935 -0.015164426 0.1041496 -0.10261062 -0.05010462 0.12267117 -0.06254138 0.28534245 -0.185999 -0.17098166 -0.047597364 0.034322996 -0.020707844 0.07417139 0.059151012 0.11153348 -0.14954929 0.040322583 0.061030034 -0.01955239 0.031253774 0.13536803 -0.057511747 0.22190343 0.012538089 0.03853495 -0.007732948 -0.19957422 0.12847655 0.01751437 0.060405135 0.17777885 -0.13500753 -0.014214644 0.24435256 -0.07062277 0.15048645 0.04745308 0.15099312 0.05716658 0.116769426 -0.020595461 0.2635865 0.04186941 0.17255695 -0.13916135 -0.02179001 0.0909068 0.03181237 0.002908078 0.23607327 -0.10021463 0.054634757 0.07465024 0.011120784 0.0315249 -0.019879028 -0.23335648 0.116900146 0.025183836 -0.16391262 0.004028371 -0.16429634 -0.114531435 -0.12704055 -0.14487515 -0.011848632 -0.12882896 0.039551 -0.0491089 -0.046709135 -0.17459282 0.04770671 -0.094862655 -0.14879473 0.17178598 0.047604654 -0.25734752 0.10789495 -0.025476614 -0.08947866 0.08197967 -0.074590966 0.05761066 -0.07974402 -0.112765744 0.026919207 0.20376769 -0.0027487262 0.011153811 -0.15894118 -0.11257567 0.19838594 -0.020050569 0.13884246 -0.09918256
2 0.11721775 0.17646249 -0.101018436 -0.035276458 -0.024001982 -0.020684294 -0.08895195 0.07596615 -0.0403657 0.072068036 0.06686839 0.0026915665 -0.068206444 -0.1612032 -0.10117226 0.013247951 -0.06439156 -0.20119993 -0.032054707 -0.029755028 0.17958172 0.05097516 -0.07071153 -0.0445345 0.026002163 -0.05726598 0.12720498 0.091466494 0.06950109 0.046515632 -0.033101767 -0.13272697 0.09935233 -0.023211293 0.103786565 -0.086288154 -0.03438746 0.11591713 -0.06177407 0.25502574 -0.1601713 -0.17436329 -0.055999156 0.021283709 -0.02239869 0.05214217 0.050328434 0.11097843 -0.1275437 0.03157496 0.064025156 -0.010702984 0.018939534 0.12584476 -0.04948557 0.21268103 0.006558426 0.030292274 0.003654825 -0.20847134 0.09646648 0.015694369 0.058759496 0.14673522 -0.11166891 -0.016660659 0.2250606 -0.063439436 0.16988733 0.068771854 0.1596131 0.06149194 0.09721356 -0.030649187 0.23205484 0.038101178 0.15758131 -0.10378203 -0.009237302 0.069768414 0.0028430712 -0.007283723 0.20493326 -0.08042726 0.06006534 0.070265174 -0.0041636983 0.038051505 -0.013737541 -0.19753401 0.11533404 0.02963461 -0.14654784 -0.0074488902 -0.13508902 -0.11451967 -0.1028211 -0.1328882 -0.023522418 -0.1030069 0.029866299 -0.060809344 -0.03289119 -0.12525328 0.057628125 -0.09105473 -0.12673996 0.15539385 0.069125175 -0.22001268 0.083561875 0.0075032418 -0.08948442 0.07316052 -0.05880038 0.04616092 -0.058078364 -0.09748443 0.0052184444 0.17134851 -0.0047112172 -0.011871844 -0.14738467 -0.10143982 0.15740207 -0.011518517 0.107073374 -0.08824335
4 0.1183262 0.16257766 -0.08697885 -0.028250894 -0.024894577 -0.010160889 -0.065607674 0.08794663 -0.023797104 0.06593136 0.059106827 0.020426078 -0.058210757 -0.15241285 -0.10698307 0.0145591935 -0.059994433 -0.17894618 -0.035882864 -0.014425107 0.17888373 0.055727556 -0.09175365 -0.017601065 0.019088484 -0.037551653 0.12081977 0.0776006 0.059638605 0.057996705 -0.021942673 -0.101714164 0.09916965 -0.010910438 0.09534099 -0.09919153 -0.043231796 0.11561424 -0.06353107 0.26457992 -0.1647771 -0.16208816 -0.037983004 0.027079325 -0.018386742 0.06969824 0.052543197 0.10138636 -0.12798095 0.03229175 0.052965213 -0.018586341 0.029429203 0.12157565 -0.05705211 0.20653677 0.007194206 0.03859683 -0.015177495 -0.18667048 0.11480867 0.011123176 0.06458054 0.16257508 -0.12196446 -0.012032153 0.22339916 -0.06188454 0.1407309 0.049860526 0.13255562 0.048894055 0.10974442 -0.019474577 0.23936385 0.031782776 0.1666926 -0.123534806 -0.020168222 0.08645269 0.028174141 -0.0008514614 0.21157514 -0.09016601 0.053227816 0.064974844 0.011710775 0.030836672 -0.015224667 -0.21216036 0.10960285 0.028444853 -0.156606 0.004580786 -0.15368184 -0.1090789 -0.12154408 -0.13487592 -0.0142174065 -0.123674355 0.041807864 -0.04547016 -0.048767854 -0.162856 0.046886064 -0.08394836 -0.13469188 0.16185795 0.04337629 -0.23462938 0.10209117 -0.025284858 -0.08732165 0.07624238 -0.06399696 0.0582682 -0.07900842 -0.10275244 0.029750045 0.19686648 0.0021207596 0.005995632 -0.14819685 -0.1105451 0.18885897 -0.015932906 0.13151178 -0.09964117
32 0.10598456 0.18037847 -0.107485145 -0.041117378 -0.030505909 -0.032839414 -0.10357268 0.07194364 -0.0426023 0.06890876 0.067467414 -0.008968862 -0.072324745 -0.16089417 -0.09824868 0.015173327 -0.060648043 -0.20411646 -0.021966828 -0.035143852 0.16684596 0.03876311 -0.056862354 -0.061282907 0.04016251 -0.05845348 0.13032311 0.0956028 0.0711993 0.03841125 -0.043875698 -0.1506018 0.10093945 -0.03866837 0.100654215 -0.07558299 -0.032322578 0.11568045 -0.050393302 0.251887 -0.17235367 -0.17763828 -0.073541544 0.016216626 -0.01988671 0.04939253 0.054923724 0.13041545 -0.13111682 0.029677626 0.077825874 -0.00793936 0.015718425 0.13307227 -0.05164322 0.21873969 0.0068513304 0.02256972 0.018278718 -0.23006554 0.0984143 0.023241566 0.059888776 0.14974324 -0.10309261 -0.021946436 0.2319006 -0.07549872 0.1934858 0.07787955 0.18729557 0.071535274 0.08194483 -0.03332305 0.23501103 0.05278655 0.16842404 -0.10760841 -0.012779329 0.060617156 -0.01607586 -0.007971073 0.22431767 -0.08152522 0.06337877 0.08565544 -0.017014956 0.05786562 -0.022235094 -0.19248827 0.1238987 0.03758454 -0.15287021 -0.0049978048 -0.14460494 -0.13293643 -0.09571081 -0.14219072 -0.030134317 -0.094005145 0.030402517 -0.06917786 -0.019474283 -0.11790345 0.066975884 -0.09052649 -0.1278418 0.17387672 0.08581082 -0.22553118 0.06951338 0.026179617 -0.10166043 0.08295066 -0.06884607 0.037442096 -0.054604016 -0.09887825 -0.0044874693 0.17330842 0.00024302512 -0.010655327 -0.16220263 -0.09020393 0.15056719 -0.0053812414 0.10085899 -0.08859286
14 0.11289605 0.15703924 -0.08453019 -0.029899538 -0.02696182 -0.011897882 -0.066039875 0.085923485 -0.025192318 0.066059254 0.05436309 0.024309589 -0.0578892 -0.14741771 -0.10716428 0.017977541 -0.060840175 -0.1744287 -0.0346173 -0.021181922 0.17375186 0.05616863 -0.08757701 -0.016742619 0.01953902 -0.040382054 0.121296234 0.07658449 0.058782108 0.052182674 -0.02639081 -0.10975976 0.09160892 -0.011749492 0.093989335 -0.09346324 -0.041870996 0.11390137 -0.057435356 0.25419143 -0.16038503 -0.15754683 -0.0441635 0.028993608 -0.023231475 0.06153566 0.05199847 0.10160641 -0.12825757 0.035556737 0.05365965 -0.012444399 0.028218837 0.12345163 -0.05142232 0.19668911 0.008682297 0.03772997 -0.0062610474 -0.18469869 0.11398132 0.012256132 0.054775383 0.15755197 -0.117900625 -0.013894333 0.22284819 -0.06297384 0.14657046 0.053773597 0.14205794 0.053476147 0.10458007 -0.022064513 0.23236506 0.034097135 0.16046429 -0.12102721 -0.018392645 0.08146373 0.022409758 0.0018895665 0.20385702 -0.08752174 0.050332237 0.063947484 0.010617871 0.032424595 -0.015834935 -0.20625284 0.110979505 0.027701791 -0.14698508 0.005186959 -0.14510407 -0.10257084 -0.10846466 -0.12691376 -0.0136678275 -0.1143367 0.03919318 -0.050067637 -0.04350152 -0.15194912 0.04810257 -0.08405341 -0.13348764 0.1502661 0.04452053 -0.22565432 0.092692964 -0.016400918 -0.08092959 0.06998046 -0.06398318 0.047430623 -0.07115062 -0.097923584 0.024718063 0.18524742 0.00091918284 0.0034540363 -0.14764531 -0.10888608 0.17492414 -0.01431713 0.12395862 -0.091333896
24 0.09858906 0.18818785 -0.10861785 -0.056874186 -0.025820872 -0.03859527 -0.12580088 0.06188253 -0.054826126 0.06786105 0.08043133 -0.03670237 -0.07735707 -0.17213628 -0.09263125 0.010095248 -0.05880446 -0.21357878 -0.016380515 -0.04659659 0.15883476 0.022110242 -0.03009931 -0.09887371 0.047248326 -0.07808849 0.12580222 0.10860362 0.079884276 0.03014335 -0.06593909 -0.18214016 0.11148402 -0.055668138 0.09187682 -0.057701 -0.017283045 0.11090626 -0.049427632 0.23667829 -0.17679097 -0.19402055 -0.09710205 0.0011076968 -0.012746277 0.0400982 0.04447118 0.15019874 -0.12594764 0.024004193 0.10214366 -0.0040003816 0.008125525 0.13263875 -0.04043735 0.2244434 0.0049860487 0.013353046 0.03036012 -0.26361465 0.08467273 0.021538405 0.05465634 0.14065962 -0.08310009 -0.016916353 0.24271093 -0.07791006 0.22766486 0.10316468 0.21728654 0.08835223 0.068674214 -0.04753999 0.23060265 0.0656053 0.16895813 -0.086308226 -0.00014707725 0.055751182 -0.05099425 -0.020868024 0.22908595 -0.06950703 0.07711324 0.09739583 -0.033449665 0.07197783 -0.02295181 -0.18227836 0.1355242 0.039384324 -0.14585967 -0.0128733395 -0.13904265 -0.15711519 -0.08262233 -0.15192167 -0.042156946 -0.07219695 0.019590104 -0.08869962 -0.004487639 -0.091285914 0.0856227 -0.1017992 -0.12778564 0.18501039 0.12815683 -0.21236733 0.049213234 0.06872741 -0.115662456 0.09082093 -0.062154274 0.028503936 -0.03508824 -0.10782565 -0.024384744 0.157182 -0.0041855606 -0.03504832 -0.17078574 -0.088677324 0.124122106 -0.0028750598 0.07593182 -0.088543616
7 0.11141549 0.12149665 -0.056619015 0.009711264 -0.041781023 0.02685388 -0.0123721715 0.13994423 0.0067236316 0.059419412 -0.0023215113 0.119905606 -0.037905157 -0.1313881 -0.14748472 0.015875062 -0.055692587 -0.12999116 -0.046499543 0.021449627 0.20316121 0.10506654 -0.17812407 0.08845597 -0.004595677 0.03330466 0.1441704 0.014603348 0.05302501 0.11301834 0.023855789 -0.024857104 0.07623742 0.005165789 0.1133847 -0.15375435 -0.09766509 0.11922376 -0.06758458 0.31264135 -0.19392414 -0.097109675 0.017146833 0.08381298 -0.03165301 0.11834028 0.09769912 0.047171447 -0.17187239 0.06238344 0.016318073 -0.044911105 0.04890641 0.13077506 -0.06293774 0.17543928 0.02629193 0.045600303 -0.042889014 -0.112678014 0.1828889 0.0137494635 0.063053936 0.2099456 -0.18785036 -0.01313362 0.21385352 -0.06557435 0.06311093 -0.009136893 0.093580626 0.010601924 0.1343041 0.02997682 0.2804249 0.019460522 0.16783026 -0.20277287 -0.07024996 0.12918267 0.13319395 0.031443547 0.229528 -0.14244132 0.024007352 0.046373963 0.083305344 -0.02549125 -0.024636343 -0.26256344 0.09837594 0.022012006 -0.17663099 0.032914955 -0.19933327 -0.050854202 -0.16080287 -0.13737372 0.036477134 -0.15658155 0.07466512 -0.0062871138 -0.11259457 -0.26085928 -0.008311353 -0.061253592 -0.16312873 0.14073832 -0.06360279 -0.3053415 0.16105703 -0.1640681 -0.0426728 0.050125018 -0.07774779 0.06918606 -0.14715251 -0.095967785 0.09680535 0.2372404 0.00073692395 0.09079732 -0.15463257 -0.13702986 0.27226073 -0.040690623 0.18517369 -0.11661246
6 0.10213823 0.116955906 -0.06128771 -0.0038393664 -0.034149967 0.008137903 -0.020283105 0.11533204 -0.0070295883 0.059691798 0.012101058 0.09297015 -0.039341226 -0.1244959 -0.12689574 0.016163673 -0.04961046 -0.12683716 -0.037646543 0.0076828697 0.17812237 0.084091954 -0.14636503 0.065864794 0.004378221 0.012120241 0.12746926 0.019618629 0.045891557 0.08578424 0.009890933 -0.044503268 0.070626944 0.0044519342 0.10292297 -0.1260164 -0.07982228 0.10240921 -0.05981676 0.26538634 -0.16860892 -0.09404554 -0.0015147849 0.06117442 -0.028528033 0.09524059 0.081600465 0.044071212 -0.14764614 0.052438136 0.02123058 -0.03250377 0.03472471 0.11863439 -0.05681882 0.15989357 0.019654647 0.039892294 -0.026771974 -0.114097856 0.15122403 0.010380396 0.053256452 0.18100452 -0.15460445 -0.014981029 0.18932274 -0.058758583 0.08057654 0.0038344648 0.102259554 0.023850877 0.11588803 0.015775092 0.24606127 0.020018598 0.14959726 -0.16448022 -0.05691483 0.10892738 0.09580316 0.022804981 0.19905318 -0.121266715 0.022744535 0.044339478 0.06399729 -0.017727088 -0.019376313 -0.21807805 0.09647532 0.018593853 -0.15146863 0.030432347 -0.16562673 -0.05763587 -0.1306182 -0.1265681 0.026658975 -0.12828735 0.059723534 -0.009367735 -0.086678036 -0.20914535 -0.0013540672 -0.053168643 -0.1402284 0.1266075 -0.033641987 -0.25949463 0.12581842 -0.1206064 -0.03807558 0.04356788 -0.07033057 0.059405413 -0.121574886 -0.087329306 0.072366364 0.19969656 6.670829e-05 0.061744567 -0.13835502 -0.11676262 0.22650664 -0.035549603 0.15600248 -0.102773264
28 0.10614229 0.17179033 -0.10047056 -0.049013093 -0.029347401 -0.031573884 -0.10735997 0.071614645 -0.046620153 0.0678508 0.07421306 -0.020839859 -0.06586567 -0.16550858 -0.10019299 0.009552561 -0.058768496 -0.19753008 -0.022106849 -0.035883162 0.15672378 0.03438375 -0.044457402 -0.068573944 0.036543902 -0.06532948 0.1247772 0.09975239 0.072419904 0.03925248 -0.05141897 -0.1584725 0.10173277 -0.036826137 0.08961917 -0.065754786 -0.02627987 0.11536981 -0.04960295 0.24362148 -0.17349803 -0.17782953 -0.0825153 0.0060515627 -0.014979027 0.047211304 0.050507125 0.13236958 -0.12994494 0.019315505 0.08334799 -0.0076239957 0.0114631355 0.128992 -0.044811033 0.2114736 0.007102379 0.025268653 0.021571096 -0.23481296 0.09508858 0.023958758 0.05672074 0.14304136 -0.09212153 -0.017987603 0.2390116 -0.06973549 0.19937366 0.086356565 0.19394177 0.080591105 0.0828326 -0.0395382 0.22902568 0.060116295 0.16524145 -0.09729493 -0.0055443435 0.067261375 -0.020497309 -0.017249139 0.22278236 -0.07514795 0.06714665 0.08735743 -0.023356136 0.062446374 -0.019140905 -0.18569668 0.13078575 0.037166037 -0.15157706 -0.004715803 -0.14424068 -0.14327891 -0.09356091 -0.13970129 -0.037528504 -0.087341465 0.026518356 -0.0774381 -0.021008866 -0.116355315 0.07516378 -0.09859337 -0.12778358 0.17982031 0.099210754 -0.21630248 0.06725038 0.040601727 -0.103875145 0.083226435 -0.0663695 0.030714897 -0.04639151 -0.0988041 -0.0040443595 0.1732667 -0.0028732559 -0.018810404 -0.16192372 -0.09358308 0.14568208 -0.0039584045 0.09174794 -0.092036046
8 0.11767555 0.15846871 -0.0835418 -0.027109167 -0.031450868 -0.011730361 -0.060898118 0.089029804 -0.028292084 0.070936635 0.05331733 0.03585493 -0.05837764 -0.15283415 -0.11452514 0.01881579 -0.06502173 -0.17975917 -0.03475785 -0.010116409 0.18862092 0.059417352 -0.0980088 -0.008762587 0.01710073 -0.035717025 0.13031818 0.07281586 0.06612193 0.061891552 -0.014689661 -0.09909208 0.09823052 -0.0031124915 0.098582685 -0.1052556 -0.050272178 0.11793969 -0.06453544 0.26993167 -0.1671779 -0.1597417 -0.039064348 0.035446446 -0.026077753 0.07357184 0.05497194 0.094327495 -0.1393296 0.037157685 0.05018368 -0.016869085 0.030849874 0.123243585 -0.05368929 0.20386584 0.009034863 0.041832406 -0.01561819 -0.1776361 0.119329624 0.011358996 0.056910902 0.16677636 -0.12860587 -0.01901937 0.23089823 -0.06621827 0.140036 0.043479957 0.14136118 0.053001665 0.118913926 -0.018248528 0.24599423 0.027907865 0.16638826 -0.1318708 -0.027415413 0.085485205 0.037162367 0.0035572606 0.2154831 -0.098833606 0.045422636 0.06105573 0.012916582 0.02769753 -0.011832345 -0.22187409 0.111244895 0.02382647 -0.1526997 0.0072875796 -0.15298939 -0.10003901 -0.11993003 -0.13614593 -0.008805307 -0.12672913 0.041400783 -0.04445907 -0.05033377 -0.17086416 0.037890926 -0.08459383 -0.1405485 0.15049037 0.030410301 -0.24603689 0.10727041 -0.034533646 -0.08020321 0.07274641 -0.06788639 0.054836966 -0.08244455 -0.10215 0.031833015 0.20323956 0.0016053496 0.0148140695 -0.14609094 -0.11649839 0.19770615 -0.016147649 0.13788491 -0.09666672
9 0.10040005 0.16505882 -0.09947893 -0.0435661 -0.029982127 -0.020189237 -0.100272626 0.07607882 -0.041199077 0.06256372 0.065070935 -0.0067164227 -0.06557239 -0.1568211 -0.10274683 0.010780243 -0.06061513 -0.18984623 -0.021544514 -0.031413898 0.17182481 0.045642793 -0.061124157 -0.052701782 0.032914054 -0.054671727 0.12373396 0.08740782 0.07185989 0.045115385 -0.04580771 -0.14736135 0.09982754 -0.03227129 0.09969123 -0.07984465 -0.03752502 0.11316881 -0.053198323 0.24923642 -0.17158909 -0.16932963 -0.068216495 0.017839149 -0.016626729 0.05878091 0.05685561 0.11669477 -0.1293778 0.030075569 0.08095987 -0.011482438 0.015031185 0.12737882 -0.0495465 0.2109469 0.014135632 0.02067639 0.008340771 -0.21620888 0.104488075 0.01653126 0.054815155 0.15286106 -0.10604716 -0.013786696 0.2327316 -0.07135923 0.17857245 0.0689857 0.18161125 0.0638536 0.08486718 -0.03364056 0.23828337 0.050073985 0.16278066 -0.108609244 -0.011954623 0.065240934 -0.008398404 -0.0050429944 0.22251926 -0.08539844 0.06333767 0.08245863 -0.011289547 0.050454017 -0.019568216 -0.19547503 0.11596161 0.036701813 -0.15022665 -0.0057174424 -0.14476845 -0.12872382 -0.0960086 -0.13803712 -0.022076784 -0.0898011 0.029518282 -0.06476923 -0.031414866 -0.1277203 0.066353194 -0.09197269 -0.1328112 0.17115958 0.08336252 -0.22548541 0.07390166 0.015906766 -0.09176655 0.080848984 -0.063580945 0.034974396 -0.054576825 -0.10241434 0.0057649994 0.17686407 -0.005474217 -0.01137594 -0.16258536 -0.094553694 0.15900776 -0.0102984095 0.09993717 -0.09264824
30 0.09713283 0.18485986 -0.11408703 -0.054964043 -0.030128814 -0.03522184 -0.12552702 0.060790677 -0.050607458 0.06906605 0.08316741 -0.037100635 -0.072329186 -0.17084782 -0.09488243 0.0067830724 -0.057170194 -0.21029143 -0.014899434 -0.040579077 0.16435905 0.023928171 -0.02917515 -0.09406098 0.04425112 -0.074924044 0.121876426 0.10900889 0.07618208 0.03242259 -0.068003 -0.18555702 0.10587207 -0.057092305 0.09048383 -0.05732595 -0.024054302 0.109884664 -0.04333606 0.23450226 -0.17210872 -0.188736 -0.09781513 -0.0013315098 -0.01517032 0.041470833 0.05083296 0.1473077 -0.13235506 0.02482664 0.100601144 -0.0058058957 0.012605379 0.13405977 -0.039204467 0.22890873 0.010692897 0.00910728 0.03334488 -0.261237 0.08903428 0.019470215 0.054639447 0.13899375 -0.08688191 -0.015995227 0.24585454 -0.07898144 0.20802611 0.0882406 0.19707997 0.080503084 0.073438436 -0.041953105 0.23007034 0.069750614 0.16845527 -0.091751106 0.0005360995 0.050311945 -0.048892617 -0.014026066 0.23176883 -0.07205372 0.07510149 0.09423892 -0.03394881 0.06773836 -0.027173996 -0.18606737 0.13396117 0.046949353 -0.1514906 -0.017916832 -0.13548686 -0.15677531 -0.07964664 -0.14997047 -0.044733237 -0.072798215 0.022573186 -0.08398666 -0.0083621405 -0.09291958 0.08686916 -0.105749875 -0.12851465 0.18819562 0.12405293 -0.21892661 0.05047308 0.06058022 -0.110641405 0.09475033 -0.06661187 0.021775521 -0.03470008 -0.10818266 -0.021301832 0.16071463 -0.0046528922 -0.033530895 -0.17392465 -0.08324527 0.12494387 -0.00255048 0.07914383 -0.08297273
20 0.11432444 0.15695933 -0.07990167 -0.026652968 -0.028206388 -0.016001165 -0.065334976 0.086773776 -0.03322438 0.06879059 0.057565533 0.026801221 -0.0604995 -0.15603688 -0.11466778 0.018127164 -0.058867745 -0.17814448 -0.03671307 -0.014500158 0.1784612 0.053672586 -0.08570125 -0.016708853 0.018587487 -0.041815907 0.12803288 0.07419841 0.06605382 0.058576863 -0.025294911 -0.11372707 0.09740239 -0.012207207 0.10040545 -0.098730564 -0.050215032 0.12113875 -0.066245295 0.2692663 -0.16951993 -0.165302 -0.0435792 0.03124644 -0.019589536 0.06343511 0.053242918 0.10298591 -0.13645028 0.03172608 0.05440652 -0.020366801 0.029918967 0.12790635 -0.0540385 0.20900258 0.012953823 0.038190432 -0.0073269308 -0.19345523 0.118854895 0.01854689 0.057039294 0.1615285 -0.12905961 -0.015735209 0.23207982 -0.069243394 0.16179714 0.057191044 0.15632793 0.060678646 0.11033635 -0.017372891 0.24749078 0.03838783 0.17057247 -0.12269874 -0.025017176 0.08642928 0.02680466 3.952025e-05 0.21927391 -0.091921605 0.05497631 0.0737767 0.012506583 0.027862884 -0.02046911 -0.21916743 0.11830591 0.02649656 -0.1562715 0.0058874036 -0.1543977 -0.10847093 -0.11943951 -0.13334312 -0.012008019 -0.12056793 0.035267208 -0.05184511 -0.046131965 -0.15700087 0.04782587 -0.083515875 -0.13992876 0.16307618 0.049977195 -0.2451623 0.10150674 -0.021583125 -0.08827314 0.07640675 -0.06920275 0.053057477 -0.08039226 -0.100653656 0.025315627 0.19880572 0.0007441066 0.010028981 -0.15409209 -0.11118491 0.19091138 -0.017388383 0.12579365 -0.100285254
25 0.09995165 0.16185823 -0.094932735 -0.044298768 -0.026898779 -0.029832074 -0.09460924 0.074217565 -0.03768965 0.06371328 0.06707812 -0.0027893404 -0.06109593 -0.15789564 -0.09499619 0.008705443 -0.056865633 -0.18150343 -0.024341218 -0.030220853 0.16449721 0.041017383 -0.06225954 -0.053902097 0.033277225 -0.054168142 0.12358817 0.08483931 0.06757977 0.044787582 -0.045543022 -0.14180021 0.0990525 -0.035580207 0.09586568 -0.0751851 -0.031298645 0.115473226 -0.04892159 0.24511003 -0.17187822 -0.16282833 -0.06700653 0.012068608 -0.013997616 0.04848337 0.05604409 0.115998164 -0.12580767 0.028432604 0.07392476 -0.006436131 0.011927582 0.12296877 -0.04883822 0.20892242 0.012578499 0.028085973 0.014376096 -0.22172183 0.1003316 0.017827803 0.052485995 0.14895508 -0.10784925 -0.016574403 0.23094031 -0.0711598 0.17945375 0.0715544 0.17826667 0.06490965 0.08526041 -0.033046383 0.23684703 0.05511457 0.16796151 -0.111437045 -0.012901396 0.07217779 -0.0097542275 -0.0066914125 0.2217413 -0.0834398 0.05902533 0.08295412 -0.0054998947 0.044727452 -0.023952313 -0.18988091 0.122864485 0.0369204 -0.15268199 -0.0010921612 -0.14376955 -0.13155311 -0.09503814 -0.13962504 -0.023047915 -0.09621469 0.033841733 -0.06293287 -0.029447146 -0.12317804 0.06365923 -0.08598007 -0.13173431 0.17038919 0.08258642 -0.22333607 0.07400665 0.018642947 -0.09282849 0.08304291 -0.06300753 0.033617757 -0.059266858 -0.09361362 0.0013269596 0.17628503 -0.0002048111 -0.013263918 -0.16016766 -0.091690324 0.15664132 -0.012814924 0.09799526 -0.09135424
5 0.112776294 0.12864304 -0.06478809 6.978695e-05 -0.032699227 0.0125421565 -0.024556015 0.119392015 -0.0054060523 0.06526213 0.018790219 0.09349726 -0.04228767 -0.1360082 -0.13767068 0.018634934 -0.056956068 -0.14234129 -0.045535363 0.008755864 0.19477428 0.08684718 -0.15277904 0.0629401 0.0008707488 0.00850685 0.13571118 0.030008553 0.05368903 0.09469098 0.014078177 -0.056097127 0.083739 0.004587265 0.112414226 -0.13534825 -0.08321811 0.11658629 -0.06533932 0.2987935 -0.18689425 -0.11295376 -0.0027048332 0.06825013 -0.025828877 0.09918053 0.08645276 0.057659008 -0.15832728 0.049006063 0.02499147 -0.031657908 0.035297584 0.12910685 -0.0629461 0.18290511 0.016425546 0.04582521 -0.03124978 -0.13276154 0.16269319 0.01437071 0.06192405 0.197896 -0.16510402 -0.017033497 0.22182243 -0.061913762 0.10995077 0.0153726265 0.13018857 0.03493395 0.12928198 0.01613378 0.27334076 0.019787364 0.16549349 -0.1783431 -0.05617381 0.11931771 0.10286429 0.017795354 0.22358043 -0.12821041 0.026277572 0.05596618 0.06229992 -0.013282238 -0.015503986 -0.24921815 0.10482612 0.025524989 -0.172887 0.031476077 -0.18756042 -0.06835119 -0.14351922 -0.14107695 0.018326422 -0.14904402 0.059927322 -0.019031359 -0.0920137 -0.23286556 0.010964974 -0.06548346 -0.15900642 0.14117844 -0.033414364 -0.28725627 0.14499028 -0.12032709 -0.052488666 0.058867853 -0.072577626 0.06927486 -0.13105561 -0.100274436 0.07431968 0.22544722 0.0001906302 0.069255106 -0.15125631 -0.12598479 0.25096348 -0.034061898 0.16953076 -0.11052453
11 0.09692409 0.12232909 -0.05761192 -0.0047863713 -0.036817707 0.00965031 -0.032864332 0.11431824 -0.0074473196 0.054862082 0.014175506 0.08154717 -0.044208884 -0.1301661 -0.123597525 0.017570125 -0.057085656 -0.13119945 -0.03833249 0.010044838 0.17709382 0.07889903 -0.13335127 0.04902024 0.005685159 0.010619088 0.12947337 0.029718168 0.050845567 0.089382894 0.006378286 -0.05529387 0.0710901 -0.0072376374 0.10380018 -0.11995677 -0.07820874 0.10694927 -0.05808442 0.27188778 -0.17346889 -0.100456975 -0.0021966714 0.061161254 -0.026856117 0.08917775 0.08438876 0.059032995 -0.14561847 0.044795625 0.029918393 -0.032132003 0.034959503 0.12062094 -0.050966863 0.16535614 0.022015944 0.037281215 -0.02446868 -0.13305153 0.14933582 0.0109008 0.055660207 0.18016446 -0.15458794 -0.011052772 0.20244643 -0.05882136 0.09672214 0.011573575 0.11250198 0.026179213 0.11256414 0.01119308 0.2495202 0.024756098 0.16002537 -0.1670368 -0.053508718 0.102811694 0.08806323 0.015371067 0.20929839 -0.11843216 0.028023897 0.049543224 0.053128086 -0.0072322707 -0.021513764 -0.22214662 0.102043696 0.024240462 -0.16040576 0.02782348 -0.16719292 -0.07021484 -0.13325337 -0.12971492 0.020987222 -0.13268334 0.054586966 -0.019187775 -0.07997802 -0.20869978 0.0074975435 -0.062206145 -0.13804312 0.13618702 -0.022127198 -0.26460278 0.1252057 -0.10760568 -0.048444264 0.050156485 -0.069713295 0.05795555 -0.11553684 -0.089745104 0.066963695 0.20321012 0.0029857352 0.06243495 -0.14681481 -0.11184775 0.22192031 -0.033619307 0.15161976 -0.10211632
31 0.10467205 0.17881311 -0.10385049 -0.04658849 -0.027101351 -0.03301433 -0.109486826 0.06624642 -0.04332432 0.06776963 0.07812203 -0.017370567 -0.0721404 -0.1620446 -0.0969246 0.010551986 -0.057485178 -0.20344923 -0.024862956 -0.033010438 0.16577743 0.035706155 -0.045778103 -0.069207296 0.03817728 -0.06255757 0.12568417 0.10136713 0.06949561 0.03429447 -0.049928926 -0.16516517 0.10511753 -0.044478644 0.09329336 -0.06822593 -0.030704828 0.11358093 -0.04835952 0.2499642 -0.17233855 -0.18211606 -0.083567835 0.011900871 -0.017429644 0.044495266 0.048924036 0.13538598 -0.12863941 0.024772616 0.08441331 -0.0041359784 0.011617276 0.13368198 -0.045949973 0.22152552 0.006188185 0.017208034 0.015690321 -0.23902103 0.09600589 0.020447018 0.056433223 0.1462358 -0.09549286 -0.015318059 0.24407353 -0.07424942 0.20327137 0.08438411 0.19825998 0.08053217 0.08628943 -0.03972815 0.2331238 0.05526507 0.1686992 -0.09792555 -0.008317651 0.06315306 -0.027204929 -0.014196197 0.22694291 -0.07934595 0.06412971 0.09043273 -0.024171231 0.05878917 -0.020026099 -0.19646257 0.12558843 0.03723868 -0.15177514 -0.007795652 -0.14170851 -0.14415379 -0.088286616 -0.14092672 -0.03877762 -0.08633985 0.021911258 -0.073950976 -0.017985059 -0.11297515 0.075077966 -0.10042192 -0.13032714 0.18320176 0.09783158 -0.22058295 0.06420458 0.034605328 -0.10956667 0.08653054 -0.06410001 0.03724078 -0.047803763 -0.107255235 -0.0034773832 0.16813476 -0.0031300853 -0.021367619 -0.16449824 -0.09492245 0.14382698 -0.005957701 0.097516164 -0.08775424
29 0.09873846 0.16798958 -0.10021025 -0.046018712 -0.029899135 -0.028791422 -0.10152167 0.06703673 -0.04559414 0.06980547 0.07382744 -0.010617809 -0.06468594 -0.16356197 -0.09784923 0.013807015 -0.05766914 -0.19606382 -0.026259948 -0.031090511 0.16195187 0.034015838 -0.056548394 -0.06257416 0.03422389 -0.06445596 0.122727506 0.09263782 0.069447 0.042496745 -0.04860141 -0.15383253 0.106353775 -0.033656973 0.09830111 -0.07438436 -0.02720004 0.117769875 -0.055835467 0.24379139 -0.17237957 -0.17448606 -0.076008886 0.0121515365 -0.019033918 0.048910435 0.04880315 0.1252677 -0.12949924 0.022865625 0.08366206 -0.004639108 0.015393227 0.12912512 -0.044924434 0.21903184 0.008913901 0.021457342 0.01310987 -0.23177907 0.09848421 0.016936628 0.058383565 0.14474607 -0.101830915 -0.017715089 0.24060957 -0.07421124 0.21262899 0.08605567 0.20530465 0.08147667 0.088336654 -0.033944644 0.24017072 0.054113097 0.17178215 -0.107392006 -0.012307932 0.06961136 -0.018168159 -0.013122237 0.2248666 -0.075924285 0.06514792 0.0830832 -0.015335839 0.05689455 -0.024589408 -0.19735137 0.12569627 0.038420845 -0.15256418 -0.00629915 -0.14023557 -0.13920866 -0.09622303 -0.14421178 -0.028770478 -0.09395922 0.024498988 -0.069668256 -0.024434566 -0.12098215 0.07042863 -0.09206695 -0.1305137 0.17199975 0.09414739 -0.22411615 0.070843175 0.024251284 -0.1020945 0.08687049 -0.06465084 0.036465004 -0.054707628 -0.10360857 -0.0063855057 0.17337961 -0.006042672 -0.016960409 -0.15933718 -0.09171111 0.15047778 -0.010927703 0.10190048 -0.08802932
26 0.0981369 0.15866715 -0.0851521 -0.041099727 -0.02352681 -0.028473591 -0.09281167 0.073038265 -0.041109867 0.057569012 0.06071937 -0.003578462 -0.06116719 -0.15007119 -0.09194652 0.010967476 -0.05673021 -0.17982525 -0.024533711 -0.027290437 0.15543845 0.032896396 -0.058522426 -0.048816882 0.03555007 -0.047071867 0.112330906 0.087196894 0.06022269 0.03748311 -0.04406426 -0.13927488 0.09579187 -0.037795164 0.08420486 -0.065958366 -0.032474443 0.10793169 -0.044872284 0.22504501 -0.15988341 -0.1582434 -0.06696128 0.011442122 -0.013137279 0.045176733 0.0458507 0.11020893 -0.117879115 0.023042241 0.070311524 -0.0049464186 0.010397061 0.114575714 -0.04113131 0.19769101 0.0066168425 0.017134473 0.015426883 -0.21158916 0.09537805 0.018040782 0.05085341 0.1389047 -0.09547164 -0.01730526 0.21721372 -0.068002574 0.15224543 0.060812455 0.15646987 0.062186062 0.08296086 -0.03371929 0.22001971 0.055559568 0.1549952 -0.09929385 -0.012202164 0.06677215 -0.007972006 -0.013792431 0.20842557 -0.07968147 0.05725454 0.08085465 -0.009625456 0.050254896 -0.015145494 -0.18037538 0.1194143 0.032680444 -0.13697933 -0.004085078 -0.13592662 -0.12119062 -0.08710583 -0.12935409 -0.026314938 -0.08728795 0.024268264 -0.060606465 -0.020795543 -0.11960473 0.06588537 -0.08574214 -0.119732544 0.16224211 0.07788644 -0.20585698 0.06537046 0.019880213 -0.08730208 0.07435863 -0.06387588 0.03380066 -0.049453177 -0.08780844 0.00025315135 0.16028658 -0.0030271471 -0.009135406 -0.14739844 -0.08736004 0.1392374 -0.008564247 0.09490977 -0.081476115
17 0.09836575 0.12367521 -0.06452084 0.0009018413 -0.034631185 0.012228255 -0.02476623 0.11871609 -0.006944668 0.06010978 0.014790644 0.08575569 -0.038393322 -0.13273449 -0.12575242 0.012155261 -0.056573898 -0.13311559 -0.042702798 0.006463738 0.18681282 0.084498964 -0.14386539 0.05879909 0.0076255878 0.011369852 0.13086505 0.029258221 0.04853962 0.092107415 0.01270417 -0.051020376 0.0715596 -0.0024197279 0.100502945 -0.12556952 -0.08161162 0.11172384 -0.0616738 0.28017503 -0.17908852 -0.1010575 -0.0015856917 0.064698815 -0.029510614 0.09628656 0.08552755 0.05908606 -0.15357845 0.05254937 0.02692184 -0.030584406 0.037639163 0.11794786 -0.06023773 0.17406616 0.023052337 0.037289057 -0.031359494 -0.12661089 0.15673941 0.0127781 0.054327518 0.18704756 -0.16018453 -0.016221927 0.20198521 -0.05820108 0.09466435 0.016300254 0.120605774 0.0325781 0.12025627 0.015387498 0.25278774 0.023109045 0.16091514 -0.17306365 -0.049980585 0.1051151 0.09547266 0.018282363 0.21447156 -0.12509878 0.03215061 0.048006397 0.061115064 -0.0068916255 -0.022021834 -0.23393755 0.09589856 0.020320565 -0.16176511 0.028514003 -0.17730547 -0.061831966 -0.13695 -0.13448897 0.017599031 -0.13084263 0.058969542 -0.01289864 -0.085823126 -0.21747626 0.0074761445 -0.05930762 -0.14313564 0.13402842 -0.027936565 -0.27276713 0.13605227 -0.11616237 -0.046102703 0.05031403 -0.07231681 0.06021347 -0.11601029 -0.09084806 0.068314284 0.20894235 -0.0010902645 0.065244496 -0.14570613 -0.115625195 0.23400109 -0.033447817 0.15963575 -0.10115667
27 0.10133126 0.16832808 -0.10052704 -0.048412368 -0.021876153 -0.026239835 -0.10254212 0.06597621 -0.044769753 0.059283353 0.06498111 -0.0124481395 -0.07049274 -0.14999153 -0.09312423 0.0090653375 -0.056836594 -0.19022956 -0.023619065 -0.02832502 0.15259348 0.037437353 -0.047037743 -0.059890922 0.039435208 -0.060481176 0.11883398 0.08708578 0.06897477 0.03629068 -0.047161393 -0.15245554 0.09948143 -0.040602032 0.088023596 -0.07033321 -0.032814752 0.10756456 -0.049219865 0.23572224 -0.16120802 -0.1700828 -0.07579108 0.012586208 -0.017455868 0.048091326 0.048083995 0.12310228 -0.12542786 0.025475884 0.07908229 -0.010642072 0.014004008 0.12104205 -0.040054318 0.20365678 0.005748986 0.01874154 0.012903565 -0.22386783 0.09310406 0.014882326 0.05508441 0.13772547 -0.09124561 -0.016908888 0.22620669 -0.07359729 0.17862703 0.07533022 0.1790344 0.06554161 0.0772398 -0.0312769 0.223457 0.056377657 0.15454477 -0.09792255 -0.0116137145 0.05759265 -0.020988723 -0.01103673 0.21495476 -0.071283534 0.06225129 0.079430215 -0.01674322 0.053313386 -0.018343095 -0.18356271 0.11851477 0.03890575 -0.13863085 -0.0056051402 -0.13529812 -0.13528255 -0.08481282 -0.13917786 -0.03494262 -0.08519252 0.027151695 -0.069322206 -0.022551375 -0.113184884 0.07142537 -0.09314421 -0.1280229 0.17195022 0.08813874 -0.21381444 0.062805146 0.028422894 -0.102981076 0.08432149 -0.059354 0.034028742 -0.046425536 -0.10386931 -0.008097963 0.1590247 -0.002025897 -0.017057167 -0.15904175 -0.0903316 0.14133082 -0.004958448 0.087663434 -0.08296642
18 0.1121508 0.1533699 -0.083338074 -0.02149023 -0.027951423 -0.004722076 -0.061380718 0.09833206 -0.022617243 0.06690747 0.045273326 0.03274311 -0.061657608 -0.15145876 -0.11756564 0.016623989 -0.064186394 -0.17630805 -0.03139496 -0.015262787 0.18917489 0.061918277 -0.10539708 -0.0027708933 0.016694384 -0.027877362 0.12691401 0.06950953 0.06303129 0.06614695 -0.020034889 -0.10073393 0.091693915 -0.01463565 0.10270418 -0.10528698 -0.05722045 0.115311325 -0.06323687 0.27457005 -0.17875612 -0.15319861 -0.03426418 0.036497857 -0.02261917 0.073719524 0.06463371 0.10001304 -0.13913587 0.03458943 0.051952813 -0.02254689 0.03060147 0.13041681 -0.05979728 0.20941289 0.0140853105 0.033052146 -0.015492344 -0.1824292 0.12868862 0.013661817 0.06370928 0.17618088 -0.13591498 -0.017628638 0.22852476 -0.0703392 0.14958319 0.04774446 0.14368358 0.053966638 0.11855815 -0.011790838 0.2576108 0.038474094 0.17377752 -0.13678096 -0.024455037 0.08898943 0.0402544 0.0004868604 0.22171345 -0.10218511 0.049019463 0.06925659 0.02181604 0.021958025 -0.022246815 -0.23097087 0.11331035 0.023652574 -0.16204418 0.008240597 -0.16035905 -0.101810865 -0.1281647 -0.13919833 -0.0051754112 -0.12906289 0.041496363 -0.041793972 -0.056950912 -0.17450792 0.040394522 -0.08206961 -0.14528628 0.16467242 0.030902721 -0.25555182 0.11062949 -0.0453833 -0.082689285 0.07056372 -0.069024764 0.05495433 -0.08615313 -0.102218665 0.032232177 0.20756415 0.0025186685 0.017120492 -0.15682742 -0.11285576 0.2020144 -0.021820093 0.14011154 -0.09728075
22 0.11562766 0.16451892 -0.086577296 -0.024897091 -0.03163058 -0.007118663 -0.06526814 0.09615501 -0.027643714 0.07088456 0.05259079 0.03732288 -0.06048676 -0.1541931 -0.11555758 0.015768733 -0.06538403 -0.18577693 -0.03247338 -0.015816757 0.19267352 0.06352859 -0.103451155 -0.006859749 0.020878296 -0.034479167 0.13540357 0.070686586 0.064371735 0.062074233 -0.018093077 -0.1048209 0.10179792 -0.014330129 0.107735746 -0.10732177 -0.054605085 0.121381074 -0.0664031 0.28089172 -0.17540538 -0.16295826 -0.042068705 0.04078528 -0.026700255 0.0712747 0.06039711 0.10374321 -0.14432327 0.03632065 0.05723667 -0.017846437 0.03195969 0.1282115 -0.05668592 0.21430004 0.0106117185 0.040262256 -0.014766723 -0.18966934 0.12831268 0.016663715 0.059139486 0.17423666 -0.13590866 -0.017984208 0.23779716 -0.06706453 0.14842089 0.048477 0.14740792 0.057103183 0.11663273 -0.017902737 0.2571263 0.032650933 0.17519978 -0.1357212 -0.024471186 0.09496327 0.038278356 0.0025542004 0.22716637 -0.10005113 0.048027687 0.07231267 0.016551627 0.025103558 -0.018601574 -0.23033059 0.11933053 0.024056843 -0.160487 0.007304025 -0.16536178 -0.10374222 -0.12529863 -0.14193016 -0.010678791 -0.12644027 0.043215465 -0.04556708 -0.05131737 -0.17537078 0.043683663 -0.08379445 -0.1429995 0.16240782 0.036151275 -0.25574088 0.10953567 -0.0364046 -0.08647105 0.07492008 -0.070346475 0.05891553 -0.08611953 -0.10431522 0.03558729 0.20798822 0.0017838445 0.017869055 -0.15797177 -0.118419155 0.20436835 -0.01845906 0.14068522 -0.10083003
13 0.11670134 0.15107237 -0.08463013 -0.022323009 -0.02676238 -0.0043364335 -0.05588959 0.09406652 -0.02022454 0.063514896 0.04840129 0.041728128 -0.06091955 -0.14691819 -0.12304872 0.013680215 -0.058121644 -0.1756717 -0.032590453 -0.010952087 0.18952781 0.069070086 -0.10850797 0.0057624415 0.018974792 -0.029209696 0.12882286 0.05987375 0.064921714 0.069309495 -0.018138202 -0.100745276 0.09683224 -0.0070319357 0.10618293 -0.11164782 -0.06116403 0.11812379 -0.06396091 0.28112063 -0.17465195 -0.15078552 -0.032796763 0.04165241 -0.022567138 0.08240636 0.06983854 0.09196083 -0.14929241 0.037243616 0.049901012 -0.017883196 0.027424898 0.12518017 -0.06043754 0.20290221 0.010604801 0.043111093 -0.01254901 -0.17282434 0.13344942 0.013368077 0.060950477 0.17467254 -0.14022887 -0.012908024 0.23394778 -0.07142793 0.14700492 0.042196576 0.15115836 0.053091183 0.111941524 -0.009233355 0.25923964 0.03189752 0.16736323 -0.14611085 -0.031060666 0.09693191 0.052442927 0.006025949 0.22343946 -0.10595935 0.044653907 0.064045586 0.022261152 0.020167029 -0.0148287015 -0.2311549 0.11074775 0.028310252 -0.16156739 0.0124016395 -0.16804062 -0.094860725 -0.12881394 -0.1406052 -0.0057899854 -0.13087788 0.047876716 -0.04053897 -0.056720726 -0.18245438 0.03595385 -0.08262874 -0.14935283 0.15924884 0.02703833 -0.25790516 0.11067544 -0.04932405 -0.08173787 0.07014136 -0.07342291 0.05979177 -0.0970707 -0.104185 0.041222308 0.2092069 0.0007769722 0.027086725 -0.15882555 -0.12030409 0.20662187 -0.020222487 0.14388809 -0.100363426
19 0.10217374 0.17739528 -0.106250964 -0.04373866 -0.03019422 -0.024250656 -0.10680215 0.07337366 -0.04209841 0.06289321 0.067076 -0.011764713 -0.072903275 -0.1640833 -0.09854535 0.014031495 -0.056637354 -0.20071568 -0.023594595 -0.032669585 0.16781855 0.037297025 -0.057912286 -0.062660284 0.037886716 -0.059897367 0.12810752 0.092103645 0.07571217 0.04469783 -0.047166385 -0.15099274 0.09842244 -0.0422803 0.09484441 -0.07706906 -0.031076878 0.116410725 -0.054147135 0.24919744 -0.17686032 -0.17779338 -0.07922334 0.015742172 -0.015288401 0.053937268 0.050630633 0.12831771 -0.13393217 0.03329177 0.08589668 -0.009772142 0.015438589 0.13024184 -0.04737963 0.21746296 0.006824135 0.020152133 0.012096915 -0.22855988 0.10237729 0.01862341 0.06130687 0.14601524 -0.10009092 -0.020157572 0.23780356 -0.0717526 0.16673703 0.07075283 0.16295566 0.063291155 0.08414859 -0.031588156 0.23230727 0.052031312 0.16293328 -0.10093444 -0.010125125 0.05894678 -0.019100174 -0.0057172887 0.22600915 -0.07768459 0.06574793 0.085000835 -0.01515845 0.052663736 -0.021545175 -0.19366018 0.11957197 0.03304777 -0.15336289 -0.0072390167 -0.13979827 -0.13079473 -0.095836736 -0.14081734 -0.0265814 -0.087885424 0.024394626 -0.0648049 -0.023173543 -0.12177578 0.07462707 -0.09399169 -0.1346957 0.17656182 0.0873811 -0.222107 0.0722586 0.027725426 -0.09687187 0.083558105 -0.06369478 0.03410951 -0.05309667 -0.10740516 -0.0012214195 0.17065783 -0.0012593584 -0.018306475 -0.16396193 -0.09674412 0.15128018 -0.00823322 0.09502843 -0.08630538
10 0.11234443 0.18540427 -0.1034323 -0.046890028 -0.028982509 -0.027724676 -0.099529035 0.07532939 -0.047211085 0.070098154 0.07739421 -0.019016376 -0.07372881 -0.16583258 -0.10136203 0.009198315 -0.062938586 -0.21243435 -0.02568796 -0.037759457 0.17325777 0.04133081 -0.052310955 -0.06976168 0.036298525 -0.06842424 0.1338857 0.09686078 0.075409085 0.042809725 -0.050434437 -0.16408086 0.109949514 -0.03749363 0.10429074 -0.080568224 -0.033059362 0.11652815 -0.059915293 0.26497447 -0.18180202 -0.18877922 -0.07572189 0.015305722 -0.021715919 0.055474877 0.052766334 0.13906395 -0.13655147 0.030297067 0.08773859 -0.006914276 0.021981869 0.1389695 -0.05388759 0.22620894 0.006236958 0.024760531 0.01300292 -0.24339634 0.10065992 0.021339793 0.06254848 0.15784578 -0.10425734 -0.019090412 0.25132748 -0.07533149 0.20888379 0.08441964 0.20252854 0.07534527 0.09194816 -0.036435336 0.24409339 0.056717217 0.17018002 -0.10540569 -0.011058138 0.06346343 -0.020070372 -0.014100223 0.23301333 -0.07757147 0.069488935 0.0877974 -0.014677371 0.060456317 -0.022858363 -0.20375587 0.12586349 0.039634634 -0.1604468 -0.008290131 -0.14487521 -0.14192663 -0.09684271 -0.14922826 -0.037561327 -0.094750606 0.025345957 -0.07698632 -0.026146492 -0.12801506 0.07845506 -0.10317991 -0.141346 0.18226482 0.09683693 -0.2344627 0.075581394 0.026762918 -0.11266099 0.08984001 -0.06409976 0.038843345 -0.056785844 -0.1085509 -0.0018252198 0.1803131 0.0011278532 -0.021572901 -0.17558311 -0.10229909 0.1627674 -0.0073817084 0.10277086 -0.095911086
21 0.10784822 0.1711641 -0.1065889 -0.039902445 -0.029737962 -0.026852766 -0.093345046 0.0775771 -0.038581412 0.063341364 0.06537716 -0.0057023033 -0.07234111 -0.16125569 -0.10339801 0.015702384 -0.058320712 -0.19752388 -0.02447189 -0.032871928 0.17048778 0.04919931 -0.066826 -0.053041868 0.032007284 -0.059401672 0.12802404 0.08652013 0.07287549 0.0474128 -0.0424357 -0.14678523 0.09925585 -0.037266575 0.10192469 -0.08394489 -0.040702153 0.11368748 -0.056216758 0.25414658 -0.17936026 -0.17622656 -0.07304946 0.018389925 -0.019748041 0.05557794 0.05271812 0.12583245 -0.13431583 0.03466538 0.07940377 -0.010477121 0.021745326 0.13396202 -0.051449023 0.21498187 0.008693083 0.023952903 0.0074157882 -0.2232379 0.10659601 0.021708133 0.063132174 0.15385064 -0.10458072 -0.018731676 0.2415659 -0.074105956 0.1996637 0.07844537 0.19321968 0.07559841 0.09089767 -0.033315502 0.24343708 0.051624574 0.16921654 -0.10850367 -0.014002211 0.06510887 -0.005627087 -0.004682343 0.22846103 -0.08474854 0.06680655 0.08347802 -0.0070928107 0.052998014 -0.023605986 -0.20289218 0.117773406 0.03469706 -0.15355656 -0.007989862 -0.14959891 -0.12732433 -0.1002602 -0.14818871 -0.025149666 -0.09792711 0.033361036 -0.06573972 -0.027373869 -0.13715683 0.06784037 -0.09385814 -0.13565218 0.17206872 0.0833144 -0.2368371 0.08045055 0.017057125 -0.09734546 0.081521526 -0.062815495 0.040657464 -0.05922741 -0.1086915 0.00679209 0.18477637 -0.0052476735 -0.005775787 -0.16518997 -0.10180729 0.1673769 -0.012128778 0.108676724 -0.096017264
15 0.10692256 0.17362401 -0.102018245 -0.047715697 -0.02440459 -0.024353907 -0.1005954 0.07325938 -0.0400738 0.06898448 0.071024954 -0.0125901485 -0.07028385 -0.16285506 -0.10254289 0.013335549 -0.05929778 -0.1932565 -0.027784882 -0.030654723 0.16619381 0.03651928 -0.05597439 -0.06063175 0.037676074 -0.063875675 0.1190969 0.09585515 0.07163503 0.04060881 -0.049325127 -0.15029442 0.10260031 -0.03314796 0.09564077 -0.07561666 -0.032304164 0.11007939 -0.051863283 0.24511947 -0.1661335 -0.17519642 -0.07515069 0.012473477 -0.017421953 0.05029461 0.0459713 0.12523484 -0.12690556 0.023388885 0.0830774 -0.011796946 0.015262113 0.12899844 -0.043093275 0.2145491 0.00842401 0.019887494 0.0113151865 -0.22241478 0.0974406 0.021800306 0.058432866 0.1459073 -0.10266618 -0.015706377 0.23356606 -0.06990354 0.18182518 0.07932389 0.18412882 0.070819095 0.088119924 -0.03414866 0.2317198 0.049025457 0.16360536 -0.1030217 -0.00823542 0.06725427 -0.0151197575 -0.014016466 0.21582362 -0.07678062 0.060776576 0.0821122 -0.014289501 0.05514464 -0.020489095 -0.192457 0.1240907 0.036075875 -0.14518915 -0.0070436955 -0.13940501 -0.13313527 -0.09029758 -0.14297596 -0.029065687 -0.086496584 0.026044922 -0.06677762 -0.023402512 -0.11533225 0.07300785 -0.09346286 -0.12932254 0.17009285 0.092570946 -0.2165281 0.06845081 0.026221087 -0.101659976 0.084553465 -0.06366944 0.039136093 -0.04942752 -0.10037318 0.00053639617 0.16483216 -0.0001632924 -0.0120900115 -0.16256215 -0.09347341 0.14956452 -0.010159981 0.09266893 -0.08838456
23 0.109446175 0.17779982 -0.10195244 -0.038944192 -0.029624341 -0.020682016 -0.09619481 0.07831667 -0.040177673 0.066436015 0.07017576 -0.0018221926 -0.07271676 -0.16449167 -0.1073616 0.014635028 -0.060260154 -0.19769022 -0.025521863 -0.026568023 0.18005542 0.05073056 -0.0684088 -0.049519267 0.03512733 -0.058932833 0.13308446 0.09168371 0.07002053 0.04780828 -0.04170247 -0.14457592 0.106803045 -0.034475375 0.103952646 -0.08394768 -0.038374417 0.11773519 -0.059355944 0.26573378 -0.17981236 -0.1811663 -0.069714874 0.020186909 -0.022501178 0.057888933 0.05564709 0.12643068 -0.1435815 0.030990591 0.08263401 -0.014992945 0.020782702 0.13466233 -0.051369626 0.22575687 0.013078377 0.025033617 0.00976554 -0.22907783 0.110604584 0.01855338 0.06487203 0.1594558 -0.11593416 -0.014283762 0.2438722 -0.07883661 0.18658328 0.0748446 0.18736035 0.07064537 0.094904415 -0.031148262 0.25092703 0.048369247 0.17095777 -0.1206651 -0.017784024 0.07364556 -0.0041229767 -0.008385219 0.23206016 -0.08528734 0.06256606 0.085909985 -0.0071499646 0.04683998 -0.022296976 -0.2119504 0.12351803 0.033446044 -0.16335076 -0.0016807248 -0.15196636 -0.1356136 -0.10644894 -0.14992051 -0.028947368 -0.10862073 0.032049537 -0.06753657 -0.033106256 -0.14324848 0.06488817 -0.09687891 -0.14241652 0.18215328 0.08097744 -0.24423799 0.088698246 0.008021946 -0.10586993 0.08932519 -0.073166616 0.04198878 -0.06225506 -0.110968985 0.004920914 0.18653154 -0.004185541 -0.009413565 -0.17274989 -0.10333073 0.17543529 -0.016235419 0.11263493 -0.099703275
16 0.09776137 0.16749217 -0.100406714 -0.04505529 -0.024075914 -0.030674743 -0.099903844 0.06563184 -0.040938694 0.0630415 0.07112666 -0.022726273 -0.063046865 -0.15124027 -0.091028936 0.013753729 -0.05246261 -0.1921667 -0.017926736 -0.03403376 0.15782085 0.031952206 -0.042711623 -0.0650376 0.03634404 -0.06309309 0.113543265 0.08946669 0.07091753 0.038016208 -0.05021394 -0.14978087 0.09444266 -0.0390105 0.08797952 -0.06867314 -0.027549343 0.107812256 -0.05200616 0.22781368 -0.1680878 -0.17372417 -0.07586109 0.0113349445 -0.016241152 0.04871957 0.045399714 0.12631637 -0.123855025 0.0240531 0.07958235 -0.003733351 0.01580789 0.12513362 -0.050166585 0.21253389 0.009189633 0.017296124 0.016311536 -0.22346365 0.09287267 0.020714113 0.058473874 0.13726564 -0.09284578 -0.016174447 0.22807229 -0.06930792 0.20156671 0.08288494 0.19708943 0.07427238 0.08248487 -0.033691734 0.22371913 0.051496513 0.16087161 -0.093193054 -0.004605935 0.055865746 -0.025142344 -0.0118991975 0.2150289 -0.076693356 0.06177214 0.08204113 -0.022318823 0.058524556 -0.023571646 -0.18935041 0.11172601 0.03299683 -0.14432262 -0.0075844456 -0.13276438 -0.13331398 -0.09214526 -0.14066052 -0.034727886 -0.08552067 0.025442513 -0.06419651 -0.019697487 -0.1081105 0.06900039 -0.09530811 -0.13005894 0.17213798 0.089621425 -0.21490946 0.06817428 0.029382262 -0.098252356 0.08391915 -0.05999362 0.035692655 -0.047456153 -0.10496074 -0.0027573907 0.16292714 -0.0033715998 -0.016977997 -0.16059469 -0.09263807 0.13841203 -0.005779066 0.08898937 -0.08769396
12 0.11325449 0.1598407 -0.08398659 -0.02147006 -0.034126785 -0.010691503 -0.0662783 0.09930198 -0.025930753 0.0696274 0.045986306 0.036905367 -0.059558816 -0.15910223 -0.120354906 0.015676491 -0.06058334 -0.17871092 -0.036905203 -0.011977251 0.191388 0.062793024 -0.105354376 -0.0026687514 0.023453759 -0.02762243 0.13276002 0.07111245 0.06231461 0.07175068 -0.01753336 -0.10561966 0.097775675 -0.013087893 0.10671054 -0.1048981 -0.06071787 0.11810883 -0.06629456 0.28004318 -0.18728638 -0.15209451 -0.03767639 0.0395205 -0.023371203 0.077482484 0.06965975 0.1002099 -0.14387025 0.0362437 0.058279634 -0.024557281 0.032397278 0.13322379 -0.0567225 0.21166846 0.010506224 0.036460888 -0.010583543 -0.19161397 0.13098979 0.014407677 0.062192768 0.17986372 -0.14089394 -0.015572483 0.23901626 -0.07147864 0.14274183 0.044018347 0.14690991 0.049119342 0.113345854 -0.011097118 0.26509622 0.039383844 0.17745177 -0.14479782 -0.026334358 0.09567177 0.044263337 0.001423137 0.23122159 -0.10487589 0.04646745 0.075566955 0.020669295 0.023409028 -0.020223197 -0.22960527 0.119665615 0.02625242 -0.16936286 0.010473604 -0.17158337 -0.103594944 -0.12557794 -0.14886557 -0.007788506 -0.13027392 0.04432597 -0.04327088 -0.0593984 -0.18425016 0.04363679 -0.08808894 -0.14689909 0.16833022 0.031325903 -0.25996026 0.11299013 -0.042978108 -0.08521386 0.07861579 -0.07660936 0.052557714 -0.09079947 -0.1047806 0.03438104 0.21157895 -0.0021955806 0.026190113 -0.16162506 -0.120547555 0.20987543 -0.01920167 0.13802846 -0.10507984
